GenomeStart 10142
Neuron 1 1 0.00000000 1 0.00000000 0.00000000 0.00000000 0.00000000
Neuron 2 1 0.00000000 1 0.00000000 0.00000000 0.00000000 0.00000000
Neuron 3 1 0.00000000 1 0.00000000 0.00000000 0.00000000 0.00000000
Neuron 4 1 0.00000000 1 0.00000000 0.00000000 0.00000000 0.00000000
Neuron 5 1 0.00000000 1 0.00000000 0.00000000 0.00000000 0.00000000
Neuron 6 2 0.00000000 1 0.00000000 0.00000000 0.00000000 0.00000000
Neuron 7 4 1.00000000 2 1.00000000 0.00000000 0.00000000 0.00000000
Neuron 8 4 1.00000000 2 1.00000000 0.00000000 0.00000000 0.00000000
Neuron 9 4 1.00000000 5 1.00000000 0.00000000 0.00000000 0.00000000
Neuron 10 3 1.00000000 1 1.00000000 0.00000000 0.00000000 0.00000000
Neuron 12 3 1.00000000 1 1.00000000 0.00000000 0.00000000 0.00000000
Neuron 25 3 2.00000000 1 1.00000000 0.00000000 0.00000000 0.00000000
Link 1 7 1 0 -1.00505658
Link 3 7 3 0 1.82980940
Link 4 7 4 0 1.15965102
Link 5 7 5 0 0.83209162
Link 6 7 6 0 -1.16737042
Link 1 8 7 0 -0.63736090
Link 2 8 8 0 0.52361990
Link 3 8 9 0 -0.27987649
Link 4 8 10 0 0.22814456
Link 5 8 11 0 2.08742147
Link 6 8 12 0 -0.58836949
Link 2 9 14 0 0.55304568
Link 3 9 15 0 0.16529945
Link 4 9 16 0 0.96574369
Link 5 9 17 0 -0.28249783
Link 6 9 18 0 -0.13201497
Link 2 10 20 0 0.54529175
Link 10 7 21 0 1.65704291
Link 3 10 25 0 -1.80728747
Link 1 12 27 0 0.68548674
Link 5 10 68 0 -1.32159672
Link 12 25 88 0 2.42381560
Link 25 9 89 0 3.24416473
GenomeEnd

