GenomeStart 791
Neuron 1 1 0.00000000 1 0.00000000 0.00000000 0.00000000 0.00000000
Neuron 2 1 0.00000000 1 0.00000000 0.00000000 0.00000000 0.00000000
Neuron 3 1 0.00000000 1 0.00000000 0.00000000 0.00000000 0.00000000
Neuron 4 1 0.00000000 1 0.00000000 0.00000000 0.00000000 0.00000000
Neuron 5 1 0.00000000 1 0.00000000 0.00000000 0.00000000 0.00000000
Neuron 6 2 0.00000000 1 0.00000000 0.00000000 0.00000000 0.00000000
Neuron 7 4 1.00000000 2 1.00000000 0.00000000 0.00000000 0.00000000
Neuron 8 4 1.00000000 2 1.00000000 0.00000000 0.00000000 0.00000000
Neuron 9 4 1.00000000 5 1.00000000 0.00000000 0.00000000 0.00000000
Link 1 7 1 0 0.39416745
Link 2 7 2 0 0.03831610
Link 3 7 3 0 1.39452999
Link 4 7 4 0 1.68005022
Link 5 7 5 0 0.19238957
Link 6 7 6 0 -0.35091903
Link 1 8 7 0 -0.62655407
Link 2 8 8 0 0.60639483
Link 3 8 9 0 0.39681504
Link 4 8 10 0 0.32208611
Link 5 8 11 0 -0.14628263
Link 6 8 12 0 -0.27649896
Link 1 9 13 0 -0.46994704
Link 2 9 14 0 -0.30611529
Link 3 9 15 0 0.11522359
Link 4 9 16 0 -0.10088653
Link 5 9 17 0 0.28762494
Link 6 9 18 0 -0.51210962
GenomeEnd

