GenomeStart 43539
Neuron 1 1 0.00000000 1 0.00000000 0.00000000 0.00000000 0.00000000
Neuron 2 1 0.00000000 1 0.00000000 0.00000000 0.00000000 0.00000000
Neuron 3 1 0.00000000 1 0.00000000 0.00000000 0.00000000 0.00000000
Neuron 4 1 0.00000000 1 0.00000000 0.00000000 0.00000000 0.00000000
Neuron 5 1 0.00000000 1 0.00000000 0.00000000 0.00000000 0.00000000
Neuron 6 2 0.00000000 1 0.00000000 0.00000000 0.00000000 0.00000000
Neuron 7 4 1.00000000 2 1.00000000 0.00000000 0.00000000 0.00000000
Neuron 8 4 1.00000000 2 1.00000000 0.00000000 0.00000000 0.00000000
Neuron 9 4 1.00000000 5 1.00000000 0.00000000 0.00000000 0.00000000
Neuron 18 3 0.50000000 1 1.00000000 0.00000000 0.00000000 0.00000000
Neuron 19 3 0.50000000 1 1.00000000 0.00000000 0.00000000 0.00000000
Neuron 21 3 0.50000000 1 1.00000000 0.00000000 0.00000000 0.00000000
Neuron 25 3 0.75000000 1 1.00000000 0.00000000 0.00000000 0.00000000
Neuron 26 3 0.50000000 1 1.00000000 0.00000000 0.00000000 0.00000000
Neuron 29 3 1.00000000 1 1.00000000 0.00000000 0.00000000 0.00000000
Neuron 31 3 0.50000000 1 1.00000000 0.00000000 0.00000000 0.00000000
Neuron 34 3 0.25000000 1 1.00000000 0.00000000 0.00000000 0.00000000
Neuron 36 3 1.00000000 1 1.00000000 0.00000000 0.00000000 0.00000000
Neuron 42 3 0.50000000 1 1.00000000 0.00000000 0.00000000 0.00000000
Neuron 50 3 1.00000000 1 1.00000000 0.00000000 0.00000000 0.00000000
Link 1 7 1 0 -5.48216378
Link 2 7 2 0 -0.01209482
Link 3 7 3 0 1.18623420
Link 4 7 4 0 -0.28041961
Link 5 7 5 0 1.31243997
Link 6 7 6 0 -0.07929173
Link 3 8 9 0 -0.72492328
Link 6 8 12 0 -1.06454890
Link 1 9 13 0 -1.94989319
Link 2 9 14 0 2.38528573
Link 3 9 15 0 -0.95183973
Link 4 9 16 0 -1.63347119
Link 6 9 18 0 -0.39200317
Link 1 18 52 0 0.00615698
Link 19 8 56 0 -2.46459109
Link 5 21 75 0 0.89570768
Link 21 8 76 0 1.81849516
Link 18 25 88 0 0.29977522
Link 25 8 89 0 -0.34360550
Link 2 26 91 0 -0.14363424
Link 26 8 92 0 -0.32764120
Link 29 9 111 0 -0.75528599
Link 6 29 113 0 1.47822630
Link 21 9 127 0 1.99160527
Link 29 8 129 0 -0.29068846
Link 26 31 151 0 -1.36082494
Link 4 34 154 0 -1.93415307
Link 34 31 155 0 -0.51320907
Link 2 36 164 0 -0.02826999
Link 36 29 165 0 1.55351691
Link 31 42 192 0 1.27726653
Link 42 19 193 0 0.06547625
Link 5 50 234 0 -1.59368438
Link 50 29 235 0 0.70183275
Link 2 50 241 0 1.54879975
GenomeEnd

