GenomeStart 36515
Neuron 1 1 0.00000000 1 0.00000000 0.00000000 0.00000000 0.00000000
Neuron 2 1 0.00000000 1 0.00000000 0.00000000 0.00000000 0.00000000
Neuron 3 1 0.00000000 1 0.00000000 0.00000000 0.00000000 0.00000000
Neuron 4 1 0.00000000 1 0.00000000 0.00000000 0.00000000 0.00000000
Neuron 5 1 0.00000000 1 0.00000000 0.00000000 0.00000000 0.00000000
Neuron 6 2 0.00000000 1 0.00000000 0.00000000 0.00000000 0.00000000
Neuron 7 4 1.00000000 2 1.00000000 0.00000000 0.00000000 0.00000000
Neuron 8 4 1.00000000 2 1.00000000 0.00000000 0.00000000 0.00000000
Neuron 9 4 1.00000000 5 1.00000000 0.00000000 0.00000000 0.00000000
Neuron 18 3 0.50000000 1 1.00000000 0.00000000 0.00000000 0.00000000
Neuron 19 3 0.50000000 1 1.00000000 0.00000000 0.00000000 0.00000000
Neuron 21 3 0.50000000 1 1.00000000 0.00000000 0.00000000 0.00000000
Neuron 25 3 0.75000000 1 1.00000000 0.00000000 0.00000000 0.00000000
Neuron 26 3 0.50000000 1 1.00000000 0.00000000 0.00000000 0.00000000
Neuron 29 3 1.00000000 1 1.00000000 0.00000000 0.00000000 0.00000000
Neuron 31 3 0.50000000 1 1.00000000 0.00000000 0.00000000 0.00000000
Neuron 34 3 0.25000000 1 1.00000000 0.00000000 0.00000000 0.00000000
Neuron 36 3 1.00000000 1 1.00000000 0.00000000 0.00000000 0.00000000
Neuron 42 3 0.50000000 1 1.00000000 0.00000000 0.00000000 0.00000000
Neuron 50 3 1.00000000 1 1.00000000 0.00000000 0.00000000 0.00000000
Link 1 7 1 0 -4.61731829
Link 2 7 2 0 -0.52702632
Link 3 7 3 0 0.63236117
Link 4 7 4 0 -0.34579969
Link 5 7 5 0 1.51322733
Link 6 7 6 0 1.91356177
Link 3 8 9 0 0.37736937
Link 6 8 12 0 -1.48022830
Link 1 9 13 0 -1.12330012
Link 2 9 14 0 1.99875385
Link 3 9 15 0 -1.05652680
Link 4 9 16 0 -1.44800596
Link 6 9 18 0 -1.00918300
Link 1 18 52 0 0.04657288
Link 19 8 56 0 -2.55044390
Link 5 21 75 0 1.46824943
Link 21 8 76 0 2.16704166
Link 18 25 88 0 0.91647791
Link 25 8 89 0 0.01611108
Link 2 26 91 0 -0.19374125
Link 26 8 92 0 -0.06322527
Link 29 9 111 0 -0.63058350
Link 6 29 113 0 1.73151073
Link 21 9 127 0 2.07844429
Link 29 8 129 0 -0.26176231
Link 26 31 151 0 -1.08752691
Link 4 34 154 0 -2.03933986
Link 34 31 155 0 -0.69846630
Link 2 36 164 0 -0.18965355
Link 36 29 165 0 2.34000778
Link 31 42 192 0 1.33509853
Link 42 19 193 0 -0.49305455
Link 5 50 234 0 -1.06324094
Link 50 29 235 0 0.54668682
Link 2 50 241 0 -1.66874878
GenomeEnd

