GenomeStart 35454
Neuron 1 1 0.00000000 1 0.00000000 0.00000000 0.00000000 0.00000000
Neuron 2 1 0.00000000 1 0.00000000 0.00000000 0.00000000 0.00000000
Neuron 3 1 0.00000000 1 0.00000000 0.00000000 0.00000000 0.00000000
Neuron 4 1 0.00000000 1 0.00000000 0.00000000 0.00000000 0.00000000
Neuron 5 1 0.00000000 1 0.00000000 0.00000000 0.00000000 0.00000000
Neuron 6 2 0.00000000 1 0.00000000 0.00000000 0.00000000 0.00000000
Neuron 7 4 1.00000000 2 1.00000000 0.00000000 0.00000000 0.00000000
Neuron 8 4 1.00000000 2 1.00000000 0.00000000 0.00000000 0.00000000
Neuron 9 4 1.00000000 5 1.00000000 0.00000000 0.00000000 0.00000000
Neuron 13 3 0.50000000 1 1.00000000 0.00000000 0.00000000 0.00000000
Neuron 18 3 0.50000000 1 1.00000000 0.00000000 0.00000000 0.00000000
Neuron 19 3 0.50000000 1 1.00000000 0.00000000 0.00000000 0.00000000
Neuron 21 3 0.50000000 1 1.00000000 0.00000000 0.00000000 0.00000000
Neuron 25 3 0.75000000 1 1.00000000 0.00000000 0.00000000 0.00000000
Neuron 26 3 0.50000000 1 1.00000000 0.00000000 0.00000000 0.00000000
Neuron 29 3 1.00000000 1 1.00000000 0.00000000 0.00000000 0.00000000
Neuron 31 3 0.50000000 1 1.00000000 0.00000000 0.00000000 0.00000000
Neuron 34 3 0.25000000 1 1.00000000 0.00000000 0.00000000 0.00000000
Neuron 36 3 1.00000000 1 1.00000000 0.00000000 0.00000000 0.00000000
Neuron 42 3 0.50000000 1 1.00000000 0.00000000 0.00000000 0.00000000
Neuron 43 3 0.75000000 1 1.00000000 0.00000000 0.00000000 0.00000000
Neuron 50 3 1.00000000 1 1.00000000 0.00000000 0.00000000 0.00000000
Neuron 57 3 1.00000000 1 1.00000000 0.00000000 0.00000000 0.00000000
Link 1 7 1 0 -5.49017932
Link 2 7 2 0 -0.59807832
Link 3 7 3 0 0.91302117
Link 4 7 4 0 -0.60383611
Link 5 7 5 0 3.09253447
Link 6 7 6 0 2.23663432
Link 3 8 9 0 0.98337220
Link 6 8 12 0 -1.80688331
Link 2 9 14 0 4.49230183
Link 3 9 15 0 -0.66571338
Link 4 9 16 0 -0.93034340
Link 6 9 18 0 -1.45710577
Link 1 13 31 0 0.81525289
Link 13 9 32 0 -2.35948082
Link 1 18 52 0 -0.06175109
Link 19 8 56 0 -2.75592043
Link 5 21 75 0 2.47985712
Link 18 25 88 0 1.11519187
Link 25 8 89 0 -0.07649436
Link 2 26 91 0 0.34986554
Link 26 8 92 0 0.34594373
Link 29 9 111 0 0.16281920
Link 6 29 113 0 3.10912872
Link 21 9 127 0 1.90354023
Link 29 8 129 0 -0.06547203
Link 26 31 151 0 -0.68511057
Link 4 34 154 0 -1.76174093
Link 34 31 155 0 -0.81588265
Link 2 36 164 0 -1.38410590
Link 36 29 165 0 3.20386818
Link 31 42 192 0 1.06638803
Link 21 43 195 0 1.00000000
Link 43 8 196 0 1.10366350
Link 5 50 234 0 -0.54677928
Link 50 29 235 0 1.05383495
Link 2 50 241 0 0.40880436
Link 42 57 279 0 1.03654400
Link 57 19 280 0 -1.24081763
GenomeEnd

